digraph Tree {
node [shape=box, style="filled, rounded", color="black", fontname=helvetica] ;
edge [fontname=helvetica] ;
0 [label="Rent <= 0.201\nmse = 0.02\nsamples = 183\nvalue = 0.174", fillcolor="#e581392c"] ;
1 [label="Rent <= 0.149\nmse = 0.003\nsamples = 127\nvalue = 0.102", fillcolor="#e581391a"] ;
0 -> 1 [labeldistance=2.5, labelangle=45, headlabel="True"] ;
2 [label="Rent <= 0.086\nmse = 0.002\nsamples = 97\nvalue = 0.083", fillcolor="#e5813915"] ;
1 -> 2 ;
3 [label="Area <= 0.41\nmse = 0.001\nsamples = 29\nvalue = 0.052", fillcolor="#e581390d"] ;
2 -> 3 ;
4 [label="Rent <= 0.082\nmse = 0.0\nsamples = 22\nvalue = 0.037", fillcolor="#e581390a"] ;
3 -> 4 ;
5 [label="City_Paris <= 0.5\nmse = 0.0\nsamples = 19\nvalue = 0.032", fillcolor="#e5813908"] ;
4 -> 5 ;
6 [label="Area <= 0.252\nmse = 0.0\nsamples = 15\nvalue = 0.035", fillcolor="#e5813909"] ;
5 -> 6 ;
7 [label="Area <= 0.107\nmse = 0.0\nsamples = 3\nvalue = 0.057", fillcolor="#e581390e"] ;
6 -> 7 ;
8 [label="mse = 0.0\nsamples = 1\nvalue = 0.07", fillcolor="#e5813912"] ;
7 -> 8 ;
9 [label="Area <= 0.228\nmse = 0.0\nsamples = 2\nvalue = 0.052", fillcolor="#e581390d"] ;
7 -> 9 ;
10 [label="mse = 0.0\nsamples = 1\nvalue = 0.05", fillcolor="#e581390d"] ;
9 -> 10 ;
11 [label="mse = -0.0\nsamples = 1\nvalue = 0.055", fillcolor="#e581390e"] ;
9 -> 11 ;
12 [label="City_Marseille <= 0.5\nmse = 0.0\nsamples = 12\nvalue = 0.031", fillcolor="#e5813908"] ;
6 -> 12 ;
13 [label="Area <= 0.303\nmse = 0.0\nsamples = 10\nvalue = 0.03", fillcolor="#e5813908"] ;
12 -> 13 ;
14 [label="Type_F2 <= 0.5\nmse = 0.0\nsamples = 2\nvalue = 0.024", fillcolor="#e5813906"] ;
13 -> 14 ;
15 [label="mse = 0.0\nsamples = 1\nvalue = 0.025", fillcolor="#e5813906"] ;
14 -> 15 ;
16 [label="mse = 0.0\nsamples = 1\nvalue = 0.023", fillcolor="#e5813906"] ;
14 -> 16 ;
17 [label="Rent <= 0.08\nmse = 0.0\nsamples = 8\nvalue = 0.032", fillcolor="#e5813908"] ;
13 -> 17 ;
18 [label="Rent <= 0.055\nmse = 0.0\nsamples = 7\nvalue = 0.031", fillcolor="#e5813908"] ;
17 -> 18 ;
19 [label="mse = -0.0\nsamples = 1\nvalue = 0.036", fillcolor="#e5813909"] ;
18 -> 19 ;
20 [label="Region_Sud_Ouest <= 0.5\nmse = 0.0\nsamples = 6\nvalue = 0.03", fillcolor="#e5813908"] ;
18 -> 20 ;
21 [label="Rent <= 0.06\nmse = 0.0\nsamples = 5\nvalue = 0.029", fillcolor="#e5813907"] ;
20 -> 21 ;
22 [label="mse = 0.0\nsamples = 1\nvalue = 0.025", fillcolor="#e5813906"] ;
21 -> 22 ;
23 [label="Type_F3 <= 0.5\nmse = 0.0\nsamples = 4\nvalue = 0.03", fillcolor="#e5813908"] ;
21 -> 23 ;
24 [label="Area <= 0.379\nmse = 0.0\nsamples = 3\nvalue = 0.029", fillcolor="#e5813907"] ;
23 -> 24 ;
25 [label="mse = -0.0\nsamples = 2\nvalue = 0.028", fillcolor="#e5813907"] ;
24 -> 25 ;
26 [label="mse = -0.0\nsamples = 1\nvalue = 0.03", fillcolor="#e5813908"] ;
24 -> 26 ;
27 [label="mse = -0.0\nsamples = 1\nvalue = 0.036", fillcolor="#e5813909"] ;
23 -> 27 ;
28 [label="mse = 0.0\nsamples = 1\nvalue = 0.036", fillcolor="#e5813909"] ;
20 -> 28 ;
29 [label="mse = -0.0\nsamples = 1\nvalue = 0.036", fillcolor="#e5813909"] ;
17 -> 29 ;
30 [label="Rent <= 0.069\nmse = 0.001\nsamples = 2\nvalue = 0.05", fillcolor="#e581390d"] ;
12 -> 30 ;
31 [label="mse = 0.0\nsamples = 1\nvalue = 0.025", fillcolor="#e5813906"] ;
30 -> 31 ;
32 [label="mse = -0.0\nsamples = 1\nvalue = 0.075", fillcolor="#e5813913"] ;
30 -> 32 ;
33 [label="Area <= 0.334\nmse = 0.0\nsamples = 4\nvalue = 0.016", fillcolor="#e5813904"] ;
5 -> 33 ;
34 [label="Area <= 0.152\nmse = 0.0\nsamples = 3\nvalue = 0.008", fillcolor="#e5813902"] ;
33 -> 34 ;
35 [label="Rent <= 0.065\nmse = 0.0\nsamples = 2\nvalue = 0.001", fillcolor="#e5813900"] ;
34 -> 35 ;
36 [label="mse = 0.0\nsamples = 1\nvalue = 0.0", fillcolor="#e5813900"] ;
35 -> 36 ;
37 [label="mse = 0.0\nsamples = 1\nvalue = 0.004", fillcolor="#e5813901"] ;
35 -> 37 ;
38 [label="mse = 0.0\nsamples = 1\nvalue = 0.018", fillcolor="#e5813904"] ;
34 -> 38 ;
39 [label="mse = 0.0\nsamples = 1\nvalue = 0.058", fillcolor="#e581390f"] ;
33 -> 39 ;
40 [label="Rent <= 0.083\nmse = 0.0\nsamples = 3\nvalue = 0.066", fillcolor="#e5813911"] ;
4 -> 40 ;
41 [label="mse = 0.0\nsamples = 1\nvalue = 0.075", fillcolor="#e5813913"] ;
40 -> 41 ;
42 [label="Type_F4 <= 0.5\nmse = 0.0\nsamples = 2\nvalue = 0.062", fillcolor="#e5813910"] ;
40 -> 42 ;
43 [label="mse = 0.0\nsamples = 1\nvalue = 0.066", fillcolor="#e5813911"] ;
42 -> 43 ;
44 [label="mse = -0.0\nsamples = 1\nvalue = 0.059", fillcolor="#e581390f"] ;
42 -> 44 ;
45 [label="Type_F5 <= 0.5\nmse = 0.001\nsamples = 7\nvalue = 0.112", fillcolor="#e581391d"] ;
3 -> 45 ;
46 [label="Area <= 0.493\nmse = 0.0\nsamples = 6\nvalue = 0.12", fillcolor="#e581391f"] ;
45 -> 46 ;
47 [label="City_Issy_Les_Moulineaux <= 0.5\nmse = 0.0\nsamples = 3\nvalue = 0.112", fillcolor="#e581391d"] ;
46 -> 47 ;
48 [label="Area <= 0.417\nmse = 0.0\nsamples = 2\nvalue = 0.104", fillcolor="#e581391a"] ;
47 -> 48 ;
49 [label="mse = 0.0\nsamples = 1\nvalue = 0.103", fillcolor="#e581391a"] ;
48 -> 49 ;
50 [label="mse = -0.0\nsamples = 1\nvalue = 0.105", fillcolor="#e581391b"] ;
48 -> 50 ;
51 [label="mse = 0.0\nsamples = 1\nvalue = 0.117", fillcolor="#e581391e"] ;
47 -> 51 ;
52 [label="Rent <= 0.063\nmse = 0.0\nsamples = 3\nvalue = 0.129", fillcolor="#e5813921"] ;
46 -> 52 ;
53 [label="mse = 0.0\nsamples = 2\nvalue = 0.129", fillcolor="#e5813921"] ;
52 -> 53 ;
54 [label="mse = -0.0\nsamples = 1\nvalue = 0.131", fillcolor="#e5813921"] ;
52 -> 54 ;
55 [label="mse = -0.0\nsamples = 1\nvalue = 0.042", fillcolor="#e581390b"] ;
45 -> 55 ;
56 [label="Area <= 0.666\nmse = 0.001\nsamples = 68\nvalue = 0.1", fillcolor="#e5813919"] ;
2 -> 56 ;
57 [label="Rent <= 0.125\nmse = 0.001\nsamples = 66\nvalue = 0.098", fillcolor="#e5813919"] ;
56 -> 57 ;
58 [label="Area <= 0.483\nmse = 0.001\nsamples = 32\nvalue = 0.087", fillcolor="#e5813916"] ;
57 -> 58 ;
59 [label="City_Paris <= 0.5\nmse = 0.001\nsamples = 26\nvalue = 0.08", fillcolor="#e5813915"] ;
58 -> 59 ;
60 [label="Area <= 0.059\nmse = 0.0\nsamples = 24\nvalue = 0.083", fillcolor="#e5813915"] ;
59 -> 60 ;
61 [label="mse = 0.0\nsamples = 1\nvalue = 0.109", fillcolor="#e581391c"] ;
60 -> 61 ;
62 [label="City_Marseille <= 0.5\nmse = 0.0\nsamples = 23\nvalue = 0.081", fillcolor="#e5813915"] ;
60 -> 62 ;
63 [label="Rent <= 0.093\nmse = 0.0\nsamples = 14\nvalue = 0.074", fillcolor="#e5813913"] ;
62 -> 63 ;
64 [label="mse = 0.0\nsamples = 1\nvalue = 0.031", fillcolor="#e5813908"] ;
63 -> 64 ;
65 [label="City_Issy_Les_Moulineaux <= 0.5\nmse = 0.0\nsamples = 13\nvalue = 0.077", fillcolor="#e5813914"] ;
63 -> 65 ;
66 [label="Area <= 0.162\nmse = 0.0\nsamples = 12\nvalue = 0.075", fillcolor="#e5813913"] ;
65 -> 66 ;
67 [label="mse = 0.0\nsamples = 1\nvalue = 0.091", fillcolor="#e5813917"] ;
66 -> 67 ;
68 [label="Rent <= 0.095\nmse = 0.0\nsamples = 11\nvalue = 0.072", fillcolor="#e5813912"] ;
66 -> 68 ;
69 [label="mse = 0.0\nsamples = 1\nvalue = 0.096", fillcolor="#e5813918"] ;
68 -> 69 ;
70 [label="Type_F3 <= 0.5\nmse = 0.0\nsamples = 10\nvalue = 0.07", fillcolor="#e5813912"] ;
68 -> 70 ;
71 [label="Region_Sud_Ouest <= 0.5\nmse = 0.0\nsamples = 6\nvalue = 0.065", fillcolor="#e5813911"] ;
70 -> 71 ;
72 [label="Area <= 0.348\nmse = 0.0\nsamples = 5\nvalue = 0.068", fillcolor="#e5813911"] ;
71 -> 72 ;
73 [label="City_Aix_En_Provence <= 0.5\nmse = 0.0\nsamples = 3\nvalue = 0.062", fillcolor="#e5813910"] ;
72 -> 73 ;
74 [label="Rent <= 0.1\nmse = 0.0\nsamples = 2\nvalue = 0.068", fillcolor="#e5813911"] ;
73 -> 74 ;
75 [label="mse = 0.0\nsamples = 1\nvalue = 0.053", fillcolor="#e581390d"] ;
74 -> 75 ;
76 [label="mse = 0.0\nsamples = 1\nvalue = 0.076", fillcolor="#e5813913"] ;
74 -> 76 ;
77 [label="mse = 0.0\nsamples = 1\nvalue = 0.042", fillcolor="#e581390b"] ;
73 -> 77 ;
78 [label="Rent <= 0.12\nmse = 0.0\nsamples = 2\nvalue = 0.075", fillcolor="#e5813913"] ;
72 -> 78 ;
79 [label="mse = 0.0\nsamples = 1\nvalue = 0.086", fillcolor="#e5813916"] ;
78 -> 79 ;
80 [label="mse = 0.0\nsamples = 1\nvalue = 0.07", fillcolor="#e5813912"] ;
78 -> 80 ;
81 [label="mse = 0.0\nsamples = 1\nvalue = 0.051", fillcolor="#e581390d"] ;
71 -> 81 ;
82 [label="Area <= 0.262\nmse = 0.0\nsamples = 4\nvalue = 0.08", fillcolor="#e5813914"] ;
70 -> 82 ;
83 [label="mse = 0.0\nsamples = 1\nvalue = 0.1", fillcolor="#e5813919"] ;
82 -> 83 ;
84 [label="Area <= 0.331\nmse = 0.0\nsamples = 3\nvalue = 0.074", fillcolor="#e5813913"] ;
82 -> 84 ;
85 [label="Region_Sud_Ouest <= 0.5\nmse = 0.0\nsamples = 2\nvalue = 0.068", fillcolor="#e5813911"] ;
84 -> 85 ;
86 [label="mse = 0.0\nsamples = 1\nvalue = 0.066", fillcolor="#e5813911"] ;
85 -> 86 ;
87 [label="mse = 0.0\nsamples = 1\nvalue = 0.07", fillcolor="#e5813912"] ;
85 -> 87 ;
88 [label="mse = -0.0\nsamples = 1\nvalue = 0.084", fillcolor="#e5813916"] ;
84 -> 88 ;
89 [label="mse = -0.0\nsamples = 1\nvalue = 0.105", fillcolor="#e581391b"] ;
65 -> 89 ;
90 [label="Area <= 0.359\nmse = 0.0\nsamples = 9\nvalue = 0.089", fillcolor="#e5813917"] ;
62 -> 90 ;
91 [label="Rent <= 0.116\nmse = 0.0\nsamples = 8\nvalue = 0.082", fillcolor="#e5813915"] ;
90 -> 91 ;
92 [label="Rent <= 0.093\nmse = 0.0\nsamples = 6\nvalue = 0.077", fillcolor="#e5813914"] ;
91 -> 92 ;
93 [label="Area <= 0.169\nmse = 0.0\nsamples = 3\nvalue = 0.072", fillcolor="#e5813912"] ;
92 -> 93 ;
94 [label="mse = 0.0\nsamples = 1\nvalue = 0.067", fillcolor="#e5813911"] ;
93 -> 94 ;
95 [label="mse = 0.0\nsamples = 2\nvalue = 0.075", fillcolor="#e5813913"] ;
93 -> 95 ;
96 [label="Area <= 0.331\nmse = 0.0\nsamples = 3\nvalue = 0.08", fillcolor="#e5813914"] ;
92 -> 96 ;
97 [label="Area <= 0.252\nmse = 0.0\nsamples = 2\nvalue = 0.078", fillcolor="#e5813914"] ;
96 -> 97 ;
98 [label="mse = 0.0\nsamples = 1\nvalue = 0.08", fillcolor="#e5813914"] ;
97 -> 98 ;
99 [label="mse = -0.0\nsamples = 1\nvalue = 0.075", fillcolor="#e5813913"] ;
97 -> 99 ;
100 [label="mse = 0.0\nsamples = 1\nvalue = 0.084", fillcolor="#e5813915"] ;
96 -> 100 ;
101 [label="Rent <= 0.12\nmse = 0.0\nsamples = 2\nvalue = 0.099", fillcolor="#e5813919"] ;
91 -> 101 ;
102 [label="mse = 0.0\nsamples = 1\nvalue = 0.091", fillcolor="#e5813917"] ;
101 -> 102 ;
103 [label="mse = 0.0\nsamples = 1\nvalue = 0.106", fillcolor="#e581391b"] ;
101 -> 103 ;
104 [label="mse = -0.0\nsamples = 1\nvalue = 0.107", fillcolor="#e581391b"] ;
90 -> 104 ;
105 [label="Rent <= 0.123\nmse = 0.001\nsamples = 2\nvalue = 0.049", fillcolor="#e581390c"] ;
59 -> 105 ;
106 [label="mse = 0.0\nsamples = 1\nvalue = 0.032", fillcolor="#e5813908"] ;
105 -> 106 ;
107 [label="mse = -0.0\nsamples = 1\nvalue = 0.084", fillcolor="#e5813915"] ;
105 -> 107 ;
108 [label="Rent <= 0.109\nmse = 0.0\nsamples = 6\nvalue = 0.118", fillcolor="#e581391e"] ;
58 -> 108 ;
109 [label="Type_F4 <= 0.5\nmse = 0.0\nsamples = 3\nvalue = 0.129", fillcolor="#e5813921"] ;
108 -> 109 ;
110 [label="mse = 0.0\nsamples = 1\nvalue = 0.134", fillcolor="#e5813922"] ;
109 -> 110 ;
111 [label="mse = 0.0\nsamples = 2\nvalue = 0.128", fillcolor="#e5813921"] ;
109 -> 111 ;
112 [label="Rent <= 0.115\nmse = 0.0\nsamples = 3\nvalue = 0.106", fillcolor="#e581391b"] ;
108 -> 112 ;
113 [label="mse = 0.0\nsamples = 1\nvalue = 0.081", fillcolor="#e5813915"] ;
112 -> 113 ;
114 [label="Region_Ile_de_France <= 0.5\nmse = 0.0\nsamples = 2\nvalue = 0.114", fillcolor="#e581391d"] ;
112 -> 114 ;
115 [label="mse = 0.0\nsamples = 1\nvalue = 0.107", fillcolor="#e581391b"] ;
114 -> 115 ;
116 [label="mse = -0.0\nsamples = 1\nvalue = 0.129", fillcolor="#e5813921"] ;
114 -> 116 ;
117 [label="Type_F2 <= 0.5\nmse = 0.001\nsamples = 34\nvalue = 0.107", fillcolor="#e581391b"] ;
57 -> 117 ;
118 [label="Rent <= 0.125\nmse = 0.001\nsamples = 31\nvalue = 0.103", fillcolor="#e581391a"] ;
117 -> 118 ;
119 [label="mse = 0.0\nsamples = 2\nvalue = 0.134", fillcolor="#e5813922"] ;
118 -> 119 ;
120 [label="Type_F5 <= 0.5\nmse = 0.001\nsamples = 29\nvalue = 0.098", fillcolor="#e5813919"] ;
118 -> 120 ;
121 [label="Area <= 0.472\nmse = 0.001\nsamples = 21\nvalue = 0.105", fillcolor="#e581391b"] ;
120 -> 121 ;
122 [label="Area <= 0.455\nmse = 0.001\nsamples = 15\nvalue = 0.095", fillcolor="#e5813918"] ;
121 -> 122 ;
123 [label="City_Marseille <= 0.5\nmse = 0.001\nsamples = 14\nvalue = 0.101", fillcolor="#e581391a"] ;
122 -> 123 ;
124 [label="City_Toulouse <= 0.5\nmse = 0.0\nsamples = 11\nvalue = 0.093", fillcolor="#e5813918"] ;
123 -> 124 ;
125 [label="Area <= 0.376\nmse = 0.0\nsamples = 10\nvalue = 0.09", fillcolor="#e5813917"] ;
124 -> 125 ;
126 [label="Type_F4 <= 0.5\nmse = 0.0\nsamples = 7\nvalue = 0.083", fillcolor="#e5813915"] ;
125 -> 126 ;
127 [label="Area <= 0.331\nmse = 0.0\nsamples = 5\nvalue = 0.077", fillcolor="#e5813914"] ;
126 -> 127 ;
128 [label="City_Bourg_La_Reine <= 0.5\nmse = 0.0\nsamples = 3\nvalue = 0.074", fillcolor="#e5813913"] ;
127 -> 128 ;
129 [label="City_Paris <= 0.5\nmse = 0.0\nsamples = 2\nvalue = 0.075", fillcolor="#e5813913"] ;
128 -> 129 ;
130 [label="mse = 0.0\nsamples = 1\nvalue = 0.074", fillcolor="#e5813913"] ;
129 -> 130 ;
131 [label="mse = 0.0\nsamples = 1\nvalue = 0.076", fillcolor="#e5813913"] ;
129 -> 131 ;
132 [label="mse = 0.0\nsamples = 1\nvalue = 0.07", fillcolor="#e5813912"] ;
128 -> 132 ;
133 [label="Rent <= 0.149\nmse = 0.0\nsamples = 2\nvalue = 0.084", fillcolor="#e5813916"] ;
127 -> 133 ;
134 [label="mse = 0.0\nsamples = 1\nvalue = 0.084", fillcolor="#e5813915"] ;
133 -> 134 ;
135 [label="mse = 0.0\nsamples = 1\nvalue = 0.085", fillcolor="#e5813916"] ;
133 -> 135 ;
136 [label="City_Manosque <= 0.5\nmse = 0.0\nsamples = 2\nvalue = 0.095", fillcolor="#e5813918"] ;
126 -> 136 ;
137 [label="mse = 0.0\nsamples = 1\nvalue = 0.086", fillcolor="#e5813916"] ;
136 -> 137 ;
138 [label="mse = -0.0\nsamples = 1\nvalue = 0.115", fillcolor="#e581391d"] ;
136 -> 138 ;
139 [label="Region_Ile_de_France <= 0.5\nmse = 0.0\nsamples = 3\nvalue = 0.108", fillcolor="#e581391b"] ;
125 -> 139 ;
140 [label="mse = 0.0\nsamples = 1\nvalue = 0.136", fillcolor="#e5813923"] ;
139 -> 140 ;
141 [label="mse = 0.0\nsamples = 2\nvalue = 0.098", fillcolor="#e5813919"] ;
139 -> 141 ;
142 [label="mse = -0.0\nsamples = 1\nvalue = 0.133", fillcolor="#e5813922"] ;
124 -> 142 ;
143 [label="Rent <= 0.128\nmse = 0.0\nsamples = 3\nvalue = 0.145", fillcolor="#e5813925"] ;
123 -> 143 ;
144 [label="mse = 0.0\nsamples = 1\nvalue = 0.14", fillcolor="#e5813924"] ;
143 -> 144 ;
145 [label="mse = 0.0\nsamples = 2\nvalue = 0.147", fillcolor="#e5813926"] ;
143 -> 145 ;
146 [label="mse = 0.0\nsamples = 1\nvalue = 0.068", fillcolor="#e5813911"] ;
122 -> 146 ;
147 [label="City_Aix_En_Provence <= 0.5\nmse = 0.0\nsamples = 6\nvalue = 0.135", fillcolor="#e5813922"] ;
121 -> 147 ;
148 [label="Area <= 0.566\nmse = 0.0\nsamples = 4\nvalue = 0.123", fillcolor="#e581391f"] ;
147 -> 148 ;
149 [label="Rent <= 0.138\nmse = 0.0\nsamples = 3\nvalue = 0.127", fillcolor="#e5813920"] ;
148 -> 149 ;
150 [label="mse = 0.0\nsamples = 2\nvalue = 0.127", fillcolor="#e5813920"] ;
149 -> 150 ;
151 [label="mse = 0.0\nsamples = 1\nvalue = 0.128", fillcolor="#e5813921"] ;
149 -> 151 ;
152 [label="mse = -0.0\nsamples = 1\nvalue = 0.106", fillcolor="#e581391b"] ;
148 -> 152 ;
153 [label="mse = -0.0\nsamples = 2\nvalue = 0.166", fillcolor="#e581392a"] ;
147 -> 153 ;
154 [label="City_Issy_Les_Moulineaux <= 0.5\nmse = 0.001\nsamples = 8\nvalue = 0.077", fillcolor="#e5813914"] ;
120 -> 154 ;
155 [label="City_Toulouse <= 0.5\nmse = 0.0\nsamples = 7\nvalue = 0.069", fillcolor="#e5813912"] ;
154 -> 155 ;
156 [label="Rent <= 0.144\nmse = 0.0\nsamples = 6\nvalue = 0.073", fillcolor="#e5813913"] ;
155 -> 156 ;
157 [label="Rent <= 0.126\nmse = 0.0\nsamples = 5\nvalue = 0.076", fillcolor="#e5813913"] ;
156 -> 157 ;
158 [label="mse = 0.0\nsamples = 1\nvalue = 0.086", fillcolor="#e5813916"] ;
157 -> 158 ;
159 [label="Rent <= 0.136\nmse = 0.0\nsamples = 4\nvalue = 0.074", fillcolor="#e5813913"] ;
157 -> 159 ;
160 [label="City_Paris <= 0.5\nmse = 0.0\nsamples = 3\nvalue = 0.072", fillcolor="#e5813912"] ;
159 -> 160 ;
161 [label="mse = 0.0\nsamples = 2\nvalue = 0.074", fillcolor="#e5813913"] ;
160 -> 161 ;
162 [label="mse = 0.0\nsamples = 1\nvalue = 0.07", fillcolor="#e5813912"] ;
160 -> 162 ;
163 [label="mse = -0.0\nsamples = 1\nvalue = 0.085", fillcolor="#e5813916"] ;
159 -> 163 ;
164 [label="mse = -0.0\nsamples = 1\nvalue = 0.057", fillcolor="#e581390e"] ;
156 -> 164 ;
165 [label="mse = 0.0\nsamples = 1\nvalue = 0.039", fillcolor="#e581390a"] ;
155 -> 165 ;
166 [label="mse = -0.0\nsamples = 1\nvalue = 0.142", fillcolor="#e5813924"] ;
154 -> 166 ;
167 [label="Rent <= 0.14\nmse = 0.0\nsamples = 3\nvalue = 0.143", fillcolor="#e5813925"] ;
117 -> 167 ;
168 [label="mse = 0.0\nsamples = 2\nvalue = 0.135", fillcolor="#e5813922"] ;
167 -> 168 ;
169 [label="mse = -0.0\nsamples = 1\nvalue = 0.186", fillcolor="#e581392f"] ;
167 -> 169 ;
170 [label="City_Paris <= 0.5\nmse = 0.0\nsamples = 2\nvalue = 0.188", fillcolor="#e5813930"] ;
56 -> 170 ;
171 [label="mse = 0.0\nsamples = 1\nvalue = 0.17", fillcolor="#e581392b"] ;
170 -> 171 ;
172 [label="mse = -0.0\nsamples = 1\nvalue = 0.206", fillcolor="#e5813935"] ;
170 -> 172 ;
173 [label="Area <= 0.552\nmse = 0.001\nsamples = 30\nvalue = 0.156", fillcolor="#e5813928"] ;
1 -> 173 ;
174 [label="Area <= 0.376\nmse = 0.001\nsamples = 25\nvalue = 0.167", fillcolor="#e581392b"] ;
173 -> 174 ;
175 [label="Type_F2 <= 0.5\nmse = 0.001\nsamples = 9\nvalue = 0.133", fillcolor="#e5813922"] ;
174 -> 175 ;
176 [label="Area <= 0.338\nmse = 0.0\nsamples = 5\nvalue = 0.115", fillcolor="#e581391d"] ;
175 -> 176 ;
177 [label="City_Manosque <= 0.5\nmse = 0.0\nsamples = 2\nvalue = 0.128", fillcolor="#e5813921"] ;
176 -> 177 ;
178 [label="mse = 0.0\nsamples = 1\nvalue = 0.133", fillcolor="#e5813922"] ;
177 -> 178 ;
179 [label="mse = 0.0\nsamples = 1\nvalue = 0.126", fillcolor="#e5813920"] ;
177 -> 179 ;
180 [label="City_Lyon <= 0.5\nmse = 0.0\nsamples = 3\nvalue = 0.102", fillcolor="#e581391a"] ;
176 -> 180 ;
181 [label="mse = 0.0\nsamples = 2\nvalue = 0.102", fillcolor="#e581391a"] ;
180 -> 181 ;
182 [label="mse = -0.0\nsamples = 1\nvalue = 0.103", fillcolor="#e581391a"] ;
180 -> 182 ;
183 [label="Region_Ile_de_France <= 0.5\nmse = 0.0\nsamples = 4\nvalue = 0.153", fillcolor="#e5813927"] ;
175 -> 183 ;
184 [label="Rent <= 0.187\nmse = 0.0\nsamples = 3\nvalue = 0.164", fillcolor="#e581392a"] ;
183 -> 184 ;
185 [label="mse = 0.0\nsamples = 1\nvalue = 0.138", fillcolor="#e5813923"] ;
184 -> 185 ;
186 [label="City_Aix_En_Provence <= 0.5\nmse = 0.0\nsamples = 2\nvalue = 0.17", fillcolor="#e581392b"] ;
184 -> 186 ;
187 [label="mse = 0.0\nsamples = 1\nvalue = 0.17", fillcolor="#e581392b"] ;
186 -> 187 ;
188 [label="mse = 0.0\nsamples = 1\nvalue = 0.172", fillcolor="#e581392c"] ;
186 -> 188 ;
189 [label="mse = 0.0\nsamples = 1\nvalue = 0.126", fillcolor="#e5813920"] ;
183 -> 189 ;
190 [label="Rent <= 0.151\nmse = 0.0\nsamples = 16\nvalue = 0.188", fillcolor="#e5813930"] ;
174 -> 190 ;
191 [label="City_Marseille <= 0.5\nmse = 0.0\nsamples = 2\nvalue = 0.157", fillcolor="#e5813928"] ;
190 -> 191 ;
192 [label="mse = 0.0\nsamples = 1\nvalue = 0.14", fillcolor="#e5813924"] ;
191 -> 192 ;
193 [label="mse = -0.0\nsamples = 1\nvalue = 0.173", fillcolor="#e581392c"] ;
191 -> 193 ;
194 [label="City_Toulouse <= 0.5\nmse = 0.0\nsamples = 14\nvalue = 0.191", fillcolor="#e5813931"] ;
190 -> 194 ;
195 [label="Type_F5 <= 0.5\nmse = 0.0\nsamples = 13\nvalue = 0.193", fillcolor="#e5813931"] ;
194 -> 195 ;
196 [label="Area <= 0.5\nmse = 0.0\nsamples = 11\nvalue = 0.189", fillcolor="#e5813930"] ;
195 -> 196 ;
197 [label="Area <= 0.476\nmse = 0.0\nsamples = 8\nvalue = 0.194", fillcolor="#e5813932"] ;
196 -> 197 ;
198 [label="Area <= 0.39\nmse = 0.0\nsamples = 5\nvalue = 0.188", fillcolor="#e5813930"] ;
197 -> 198 ;
199 [label="mse = 0.0\nsamples = 3\nvalue = 0.187", fillcolor="#e5813930"] ;
198 -> 199 ;
200 [label="City_Lyon <= 0.5\nmse = 0.0\nsamples = 2\nvalue = 0.19", fillcolor="#e5813931"] ;
198 -> 200 ;
201 [label="mse = 0.0\nsamples = 1\nvalue = 0.19", fillcolor="#e5813930"] ;
200 -> 201 ;
202 [label="mse = 0.0\nsamples = 1\nvalue = 0.191", fillcolor="#e5813931"] ;
200 -> 202 ;
203 [label="mse = 0.0\nsamples = 3\nvalue = 0.2", fillcolor="#e5813933"] ;
197 -> 203 ;
204 [label="Rent <= 0.174\nmse = 0.0\nsamples = 3\nvalue = 0.169", fillcolor="#e581392b"] ;
196 -> 204 ;
205 [label="mse = 0.0\nsamples = 1\nvalue = 0.187", fillcolor="#e5813930"] ;
204 -> 205 ;
206 [label="City_Aix_En_Provence <= 0.5\nmse = 0.0\nsamples = 2\nvalue = 0.163", fillcolor="#e581392a"] ;
204 -> 206 ;
207 [label="mse = 0.0\nsamples = 1\nvalue = 0.161", fillcolor="#e5813929"] ;
206 -> 207 ;
208 [label="mse = 0.0\nsamples = 1\nvalue = 0.166", fillcolor="#e581392a"] ;
206 -> 208 ;
209 [label="mse = 0.0\nsamples = 2\nvalue = 0.211", fillcolor="#e5813936"] ;
195 -> 209 ;
210 [label="mse = -0.0\nsamples = 1\nvalue = 0.157", fillcolor="#e5813928"] ;
194 -> 210 ;
211 [label="City_Paris <= 0.5\nmse = 0.0\nsamples = 5\nvalue = 0.118", fillcolor="#e581391e"] ;
173 -> 211 ;
212 [label="Area <= 0.641\nmse = 0.0\nsamples = 4\nvalue = 0.103", fillcolor="#e581391a"] ;
211 -> 212 ;
213 [label="Region_Ile_de_France <= 0.5\nmse = 0.0\nsamples = 2\nvalue = 0.108", fillcolor="#e581391c"] ;
212 -> 213 ;
214 [label="mse = 0.0\nsamples = 1\nvalue = 0.109", fillcolor="#e581391c"] ;
213 -> 214 ;
215 [label="mse = 0.0\nsamples = 1\nvalue = 0.107", fillcolor="#e581391b"] ;
213 -> 215 ;
216 [label="mse = 0.0\nsamples = 2\nvalue = 0.099", fillcolor="#e5813919"] ;
212 -> 216 ;
217 [label="mse = 0.0\nsamples = 1\nvalue = 0.148", fillcolor="#e5813926"] ;
211 -> 217 ;
218 [label="Rent <= 0.344\nmse = 0.023\nsamples = 56\nvalue = 0.331", fillcolor="#e5813954"] ;
0 -> 218 [labeldistance=2.5, labelangle=-45, headlabel="False"] ;
219 [label="Type_F5 <= 0.5\nmse = 0.013\nsamples = 37\nvalue = 0.263", fillcolor="#e5813943"] ;
218 -> 219 ;
220 [label="Rent <= 0.296\nmse = 0.004\nsamples = 34\nvalue = 0.241", fillcolor="#e581393d"] ;
219 -> 220 ;
221 [label="City_Bourg_La_Reine <= 0.5\nmse = 0.002\nsamples = 25\nvalue = 0.222", fillcolor="#e5813939"] ;
220 -> 221 ;
222 [label="Area <= 0.807\nmse = 0.002\nsamples = 24\nvalue = 0.218", fillcolor="#e5813938"] ;
221 -> 222 ;
223 [label="City_Paris <= 0.5\nmse = 0.001\nsamples = 23\nvalue = 0.224", fillcolor="#e5813939"] ;
222 -> 223 ;
224 [label="City_Marseille <= 0.5\nmse = 0.001\nsamples = 19\nvalue = 0.214", fillcolor="#e5813937"] ;
223 -> 224 ;
225 [label="City_Manosque <= 0.5\nmse = 0.001\nsamples = 16\nvalue = 0.206", fillcolor="#e5813935"] ;
224 -> 225 ;
226 [label="Area <= 0.262\nmse = 0.001\nsamples = 12\nvalue = 0.199", fillcolor="#e5813933"] ;
225 -> 226 ;
227 [label="Region_Ile_de_France <= 0.5\nmse = 0.0\nsamples = 3\nvalue = 0.167", fillcolor="#e581392a"] ;
226 -> 227 ;
228 [label="Rent <= 0.215\nmse = 0.0\nsamples = 2\nvalue = 0.17", fillcolor="#e581392b"] ;
227 -> 228 ;
229 [label="mse = 0.0\nsamples = 1\nvalue = 0.172", fillcolor="#e581392c"] ;
228 -> 229 ;
230 [label="mse = -0.0\nsamples = 1\nvalue = 0.167", fillcolor="#e581392b"] ;
228 -> 230 ;
231 [label="mse = -0.0\nsamples = 1\nvalue = 0.155", fillcolor="#e5813927"] ;
227 -> 231 ;
232 [label="Area <= 0.466\nmse = 0.0\nsamples = 9\nvalue = 0.208", fillcolor="#e5813935"] ;
226 -> 232 ;
233 [label="Type_F3 <= 0.5\nmse = 0.0\nsamples = 4\nvalue = 0.22", fillcolor="#e5813938"] ;
232 -> 233 ;
234 [label="mse = 0.0\nsamples = 1\nvalue = 0.197", fillcolor="#e5813932"] ;
233 -> 234 ;
235 [label="Rent <= 0.276\nmse = 0.0\nsamples = 3\nvalue = 0.225", fillcolor="#e5813939"] ;
233 -> 235 ;
236 [label="Area <= 0.379\nmse = 0.0\nsamples = 2\nvalue = 0.231", fillcolor="#e581393b"] ;
235 -> 236 ;
237 [label="mse = 0.0\nsamples = 1\nvalue = 0.228", fillcolor="#e581393a"] ;
236 -> 237 ;
238 [label="mse = 0.0\nsamples = 1\nvalue = 0.233", fillcolor="#e581393b"] ;
236 -> 238 ;
239 [label="mse = 0.0\nsamples = 1\nvalue = 0.215", fillcolor="#e5813937"] ;
235 -> 239 ;
240 [label="Rent <= 0.246\nmse = 0.0\nsamples = 5\nvalue = 0.198", fillcolor="#e5813933"] ;
232 -> 240 ;
241 [label="City_Aix_En_Provence <= 0.5\nmse = 0.0\nsamples = 3\nvalue = 0.212", fillcolor="#e5813936"] ;
240 -> 241 ;
242 [label="mse = 0.0\nsamples = 2\nvalue = 0.211", fillcolor="#e5813936"] ;
241 -> 242 ;
243 [label="mse = 0.0\nsamples = 1\nvalue = 0.213", fillcolor="#e5813936"] ;
241 -> 243 ;
244 [label="City_Aix_En_Provence <= 0.5\nmse = 0.0\nsamples = 2\nvalue = 0.185", fillcolor="#e581392f"] ;
240 -> 244 ;
245 [label="mse = 0.0\nsamples = 1\nvalue = 0.187", fillcolor="#e5813930"] ;
244 -> 245 ;
246 [label="mse = 0.0\nsamples = 1\nvalue = 0.178", fillcolor="#e581392d"] ;
244 -> 246 ;
247 [label="Area <= 0.21\nmse = 0.001\nsamples = 4\nvalue = 0.233", fillcolor="#e581393c"] ;
225 -> 247 ;
248 [label="Type_F1 <= 0.5\nmse = 0.0\nsamples = 2\nvalue = 0.217", fillcolor="#e5813937"] ;
247 -> 248 ;
249 [label="mse = 0.0\nsamples = 1\nvalue = 0.211", fillcolor="#e5813936"] ;
248 -> 249 ;
250 [label="mse = 0.0\nsamples = 1\nvalue = 0.229", fillcolor="#e581393a"] ;
248 -> 250 ;
251 [label="Area <= 0.262\nmse = 0.0\nsamples = 2\nvalue = 0.258", fillcolor="#e5813942"] ;
247 -> 251 ;
252 [label="mse = 0.0\nsamples = 1\nvalue = 0.246", fillcolor="#e581393f"] ;
251 -> 252 ;
253 [label="mse = 0.0\nsamples = 1\nvalue = 0.27", fillcolor="#e5813945"] ;
251 -> 253 ;
254 [label="Rent <= 0.244\nmse = 0.0\nsamples = 3\nvalue = 0.25", fillcolor="#e5813940"] ;
224 -> 254 ;
255 [label="mse = 0.0\nsamples = 1\nvalue = 0.27", fillcolor="#e5813945"] ;
254 -> 255 ;
256 [label="Rent <= 0.264\nmse = 0.0\nsamples = 2\nvalue = 0.244", fillcolor="#e581393e"] ;
254 -> 256 ;
257 [label="mse = 0.0\nsamples = 1\nvalue = 0.245", fillcolor="#e581393f"] ;
256 -> 257 ;
258 [label="mse = 0.0\nsamples = 1\nvalue = 0.242", fillcolor="#e581393e"] ;
256 -> 258 ;
259 [label="Rent <= 0.221\nmse = 0.001\nsamples = 4\nvalue = 0.259", fillcolor="#e5813942"] ;
223 -> 259 ;
260 [label="mse = 0.0\nsamples = 1\nvalue = 0.291", fillcolor="#e581394a"] ;
259 -> 260 ;
261 [label="Type_F6 <= 0.5\nmse = 0.001\nsamples = 3\nvalue = 0.227", fillcolor="#e581393a"] ;
259 -> 261 ;
262 [label="mse = 0.0\nsamples = 1\nvalue = 0.187", fillcolor="#e5813930"] ;
261 -> 262 ;
263 [label="mse = -0.0\nsamples = 2\nvalue = 0.24", fillcolor="#e581393d"] ;
261 -> 263 ;
264 [label="mse = 0.0\nsamples = 1\nvalue = 0.15", fillcolor="#e5813926"] ;
222 -> 264 ;
265 [label="mse = 0.0\nsamples = 1\nvalue = 0.377", fillcolor="#e5813960"] ;
221 -> 265 ;
266 [label="Region_Paca <= 0.5\nmse = 0.003\nsamples = 9\nvalue = 0.303", fillcolor="#e581394d"] ;
220 -> 266 ;
267 [label="Rent <= 0.301\nmse = 0.004\nsamples = 6\nvalue = 0.34", fillcolor="#e5813957"] ;
266 -> 267 ;
268 [label="mse = 0.0\nsamples = 1\nvalue = 0.414", fillcolor="#e581396a"] ;
267 -> 268 ;
269 [label="Rent <= 0.311\nmse = 0.003\nsamples = 5\nvalue = 0.325", fillcolor="#e5813953"] ;
267 -> 269 ;
270 [label="Region_Ile_de_France <= 0.5\nmse = 0.0\nsamples = 2\nvalue = 0.256", fillcolor="#e5813941"] ;
269 -> 270 ;
271 [label="mse = 0.0\nsamples = 1\nvalue = 0.243", fillcolor="#e581393e"] ;
270 -> 271 ;
272 [label="mse = 0.0\nsamples = 1\nvalue = 0.268", fillcolor="#e5813944"] ;
270 -> 272 ;
273 [label="Region_Ile_de_France <= 0.5\nmse = 0.0\nsamples = 3\nvalue = 0.371", fillcolor="#e581395f"] ;
269 -> 273 ;
274 [label="mse = 0.0\nsamples = 1\nvalue = 0.398", fillcolor="#e5813966"] ;
273 -> 274 ;
275 [label="Type_F6 <= 0.5\nmse = 0.0\nsamples = 2\nvalue = 0.357", fillcolor="#e581395b"] ;
273 -> 275 ;
276 [label="mse = 0.0\nsamples = 1\nvalue = 0.354", fillcolor="#e581395a"] ;
275 -> 276 ;
277 [label="mse = 0.0\nsamples = 1\nvalue = 0.36", fillcolor="#e581395c"] ;
275 -> 277 ;
278 [label="Area <= 0.41\nmse = 0.0\nsamples = 3\nvalue = 0.266", fillcolor="#e5813944"] ;
266 -> 278 ;
279 [label="Area <= 0.366\nmse = 0.0\nsamples = 2\nvalue = 0.257", fillcolor="#e5813942"] ;
278 -> 279 ;
280 [label="mse = 0.0\nsamples = 1\nvalue = 0.252", fillcolor="#e5813940"] ;
279 -> 280 ;
281 [label="mse = 0.0\nsamples = 1\nvalue = 0.259", fillcolor="#e5813942"] ;
279 -> 281 ;
282 [label="mse = 0.0\nsamples = 1\nvalue = 0.283", fillcolor="#e5813948"] ;
278 -> 282 ;
283 [label="Rent <= 0.224\nmse = 0.047\nsamples = 3\nvalue = 0.404", fillcolor="#e5813967"] ;
219 -> 283 ;
284 [label="mse = 0.0\nsamples = 1\nvalue = 0.772", fillcolor="#e58139c5"] ;
283 -> 284 ;
285 [label="Area <= 0.717\nmse = 0.002\nsamples = 2\nvalue = 0.282", fillcolor="#e5813948"] ;
283 -> 285 ;
286 [label="mse = 0.0\nsamples = 1\nvalue = 0.17", fillcolor="#e581392b"] ;
285 -> 286 ;
287 [label="mse = 0.0\nsamples = 1\nvalue = 0.304", fillcolor="#e581394d"] ;
285 -> 287 ;
288 [label="Area <= 0.707\nmse = 0.016\nsamples = 19\nvalue = 0.46", fillcolor="#e5813975"] ;
218 -> 288 ;
289 [label="Rent <= 0.427\nmse = 0.005\nsamples = 17\nvalue = 0.428", fillcolor="#e581396d"] ;
288 -> 289 ;
290 [label="Rent <= 0.361\nmse = 0.002\nsamples = 9\nvalue = 0.387", fillcolor="#e5813963"] ;
289 -> 290 ;
291 [label="Area <= 0.528\nmse = 0.002\nsamples = 4\nvalue = 0.434", fillcolor="#e581396f"] ;
290 -> 291 ;
292 [label="mse = 0.0\nsamples = 3\nvalue = 0.454", fillcolor="#e5813974"] ;
291 -> 292 ;
293 [label="mse = -0.0\nsamples = 1\nvalue = 0.335", fillcolor="#e5813956"] ;
291 -> 293 ;
294 [label="Area <= 0.559\nmse = 0.001\nsamples = 5\nvalue = 0.358", fillcolor="#e581395b"] ;
290 -> 294 ;
295 [label="City_Gif_Sur_Yvette <= 0.5\nmse = 0.0\nsamples = 2\nvalue = 0.316", fillcolor="#e5813951"] ;
294 -> 295 ;
296 [label="mse = 0.0\nsamples = 1\nvalue = 0.296", fillcolor="#e581394c"] ;
295 -> 296 ;
297 [label="mse = 0.0\nsamples = 1\nvalue = 0.335", fillcolor="#e5813955"] ;
295 -> 297 ;
298 [label="Area <= 0.638\nmse = 0.0\nsamples = 3\nvalue = 0.369", fillcolor="#e581395e"] ;
294 -> 298 ;
299 [label="Type_F4 <= 0.5\nmse = 0.0\nsamples = 2\nvalue = 0.358", fillcolor="#e581395b"] ;
298 -> 299 ;
300 [label="mse = 0.0\nsamples = 1\nvalue = 0.361", fillcolor="#e581395c"] ;
299 -> 300 ;
301 [label="mse = -0.0\nsamples = 1\nvalue = 0.356", fillcolor="#e581395b"] ;
299 -> 301 ;
302 [label="mse = 0.0\nsamples = 1\nvalue = 0.379", fillcolor="#e5813961"] ;
298 -> 302 ;
303 [label="City_Aix_En_Provence <= 0.5\nmse = 0.002\nsamples = 8\nvalue = 0.48", fillcolor="#e581397a"] ;
289 -> 303 ;
304 [label="Rent <= 0.456\nmse = 0.001\nsamples = 7\nvalue = 0.463", fillcolor="#e5813976"] ;
303 -> 304 ;
305 [label="Area <= 0.634\nmse = 0.0\nsamples = 3\nvalue = 0.491", fillcolor="#e581397d"] ;
304 -> 305 ;
306 [label="Region_Rhône_Alpes <= 0.5\nmse = 0.0\nsamples = 2\nvalue = 0.485", fillcolor="#e581397c"] ;
305 -> 306 ;
307 [label="mse = 0.0\nsamples = 1\nvalue = 0.483", fillcolor="#e581397b"] ;
306 -> 307 ;
308 [label="mse = 0.0\nsamples = 1\nvalue = 0.49", fillcolor="#e581397d"] ;
306 -> 308 ;
309 [label="mse = 0.0\nsamples = 1\nvalue = 0.523", fillcolor="#e5813985"] ;
305 -> 309 ;
310 [label="Rent <= 0.469\nmse = 0.0\nsamples = 4\nvalue = 0.43", fillcolor="#e581396e"] ;
304 -> 310 ;
311 [label="mse = 0.0\nsamples = 2\nvalue = 0.436", fillcolor="#e581396f"] ;
310 -> 311 ;
312 [label="Type_F4 <= 0.5\nmse = 0.0\nsamples = 2\nvalue = 0.421", fillcolor="#e581396b"] ;
310 -> 312 ;
313 [label="mse = 0.0\nsamples = 1\nvalue = 0.42", fillcolor="#e581396b"] ;
312 -> 313 ;
314 [label="mse = -0.0\nsamples = 1\nvalue = 0.422", fillcolor="#e581396c"] ;
312 -> 314 ;
315 [label="mse = -0.0\nsamples = 1\nvalue = 0.57", fillcolor="#e5813991"] ;
303 -> 315 ;
316 [label="Rent <= 0.7\nmse = 0.027\nsamples = 2\nvalue = 0.766", fillcolor="#e58139c3"] ;
288 -> 316 ;
317 [label="mse = 0.0\nsamples = 1\nvalue = 0.649", fillcolor="#e58139a5"] ;
316 -> 317 ;
318 [label="mse = -0.0\nsamples = 1\nvalue = 1.0", fillcolor="#e58139ff"] ;
316 -> 318 ;
}